network unknown {
}
variable 24 {
	type discrete [ 4 ] { 0, 1, 2, 3 };
}
variable 25 {
	type discrete [ 3 ] { 0, 1, 2 };
}
variable 26 {
	type discrete [ 3 ] { 0, 1, 2 };
}
variable 27 {
	type discrete [ 3 ] { 0, 1, 2 };
}
variable 20 {
	type discrete [ 4 ] { 0, 1, 2, 3 };
}
variable 21 {
	type discrete [ 3 ] { 0, 1, 2 };
}
variable 22 {
	type discrete [ 4 ] { 0, 1, 2, 3 };
}
variable 23 {
	type discrete [ 4 ] { 0, 1, 2, 3 };
}
variable 28 {
	type discrete [ 2 ] { 0, 1 };
}
variable 29 {
	type discrete [ 3 ] { 0, 1, 2 };
}
variable 1 {
	type discrete [ 2 ] { 0, 1 };
}
variable 0 {
	type discrete [ 2 ] { 0, 1 };
}
variable 3 {
	type discrete [ 2 ] { 0, 1 };
}
variable 2 {
	type discrete [ 3 ] { 0, 1, 2 };
}
variable 5 {
	type discrete [ 2 ] { 0, 1 };
}
variable 4 {
	type discrete [ 2 ] { 0, 1 };
}
variable 7 {
	type discrete [ 3 ] { 0, 1, 2 };
}
variable 6 {
	type discrete [ 2 ] { 0, 1 };
}
variable 9 {
	type discrete [ 3 ] { 0, 1, 2 };
}
variable 8 {
	type discrete [ 3 ] { 0, 1, 2 };
}
variable 11 {
	type discrete [ 2 ] { 0, 1 };
}
variable 10 {
	type discrete [ 3 ] { 0, 1, 2 };
}
variable 13 {
	type discrete [ 3 ] { 0, 1, 2 };
}
variable 12 {
	type discrete [ 2 ] { 0, 1 };
}
variable 15 {
	type discrete [ 4 ] { 0, 1, 2, 3 };
}
variable 14 {
	type discrete [ 4 ] { 0, 1, 2, 3 };
}
variable 17 {
	type discrete [ 2 ] { 0, 1 };
}
variable 16 {
	type discrete [ 2 ] { 0, 1 };
}
variable 19 {
	type discrete [ 2 ] { 0, 1 };
}
variable 32 {
	type discrete [ 3 ] { 0, 1, 2 };
}
variable 31 {
	type discrete [ 3 ] { 0, 1, 2 };
}
variable 30 {
	type discrete [ 3 ] { 0, 1, 2 };
}
variable 36 {
	type discrete [ 3 ] { 0, 1, 2 };
}
variable 35 {
	type discrete [ 4 ] { 0, 1, 2, 3 };
}
variable 34 {
	type discrete [ 3 ] { 0, 1, 2 };
}
variable 33 {
	type discrete [ 3 ] { 0, 1, 2 };
}
variable 18 {
	type discrete [ 2 ] { 0, 1 };
}
probability ( 24 ) {
	table 0.863993003498, 0.0763868065967, 0.0382058970515, 0.0214142928536
}
probability ( 25 | 24 ) {
	(0) 0.00895585697622, 0.00918722464837, 0.981856918375;
	(1) 0.00447061389161, 0.00185366917457, 0.993675716934;
	(2) 0.0429474602136, 0.91672116852, 0.0403313712666;
	(3) 0.907429015947, 0.0766238817581, 0.0159471022948;
}
probability ( 26 | 24 ) {
	(0) 0.999903596803, 4.8201598365e-05, 4.8201598365e-05;
	(1) 0.95311307382, 0.0371824228547, 0.0097045033257;
	(2) 0.0586439938958, 0.903640723785, 0.0377152823196;
	(3) 0.0532866588876, 0.00661221314664, 0.940101127966;
}
probability ( 27 | 26 ) {
	(0) 0.114670824916, 0.875488771544, 0.00984040353924;
	(1) 0.504584442473, 0.0280981958001, 0.467317361727;
	(2) 0.722305017387, 0.261798310979, 0.0158966716344;
}
probability ( 20 | 15, 19, 8 ) {
	(0, 0, 0) 0.950096432015, 0.0243490838959, 0.0243490838959, 0.00120540019286;
	(0, 0, 1) 0.929245283019, 0.0235849056604, 0.0235849056604, 0.0235849056604;
	(0, 0, 2) 0.870689655172, 0.0431034482759, 0.0431034482759, 0.0431034482759;
	(0, 1, 0) 0.96767826494, 0.00827742237479, 0.0112732095491, 0.0127711031362;
	(0, 1, 1) 0.93954509178, 0.0393056664006, 0.0201516360734, 0.000997605746209;
	(0, 1, 2) 0.974086129194, 0.000625938908363, 0.0126439659489, 0.0126439659489;
	(1, 0, 0) 0.00166889185581, 0.354138851802, 0.450267022697, 0.193925233645;
	(1, 0, 1) 0.25, 0.25, 0.25, 0.25;
	(1, 0, 2) 0.0431034482759, 0.870689655172, 0.0431034482759, 0.0431034482759;
	(1, 1, 0) 0.103300733496, 0.835785346935, 0.0486679032122, 0.0122460163561;
	(1, 1, 1) 0.0042662116041, 0.987201365188, 0.0042662116041, 0.0042662116041;
	(1, 1, 2) 0.001617076326, 0.870957309185, 0.0637128072445, 0.0637128072445;
	(2, 0, 0) 0.0126533079979, 0.0126533079979, 0.0831318016929, 0.891561582311;
	(2, 0, 1) 0.0042662116041, 0.0042662116041, 0.0042662116041, 0.987201365188;
	(2, 0, 2) 0.00634517766497, 0.859137055838, 0.128172588832, 0.00634517766497;
	(2, 1, 0) 0.0503605776942, 0.254234542317, 0.250538941749, 0.44486593824;
	(2, 1, 1) 0.015476442003, 0.00533488273822, 0.963712233256, 0.015476442003;
	(2, 1, 2) 0.0136465953855, 0.00824423185144, 0.381007315701, 0.597101857062;
	(3, 0, 0) 0.00206611570248, 0.00206611570248, 0.0417355371901, 0.954132231405;
	(3, 0, 1) 0.0235849056604, 0.0235849056604, 0.0235849056604, 0.929245283019;
	(3, 0, 2) 0.870689655172, 0.0431034482759, 0.0431034482759, 0.0431034482759;
	(3, 1, 0) 0.0116339607529, 0.151962354826, 0.240388466159, 0.596015218262;
	(3, 1, 1) 0.00366568914956, 0.00366568914956, 0.00366568914956, 0.989002932551;
	(3, 1, 2) 0.0348275862069, 0.0348275862069, 0.00172413793103, 0.928620689655;
}
probability ( 21 | 9 ) {
	(0) 0.948487014534, 0.0401238980224, 0.0113890874434;
	(1) 0.0421648026739, 0.947197583237, 0.0106376140892;
	(2) 0.0152314001172, 0.280169888694, 0.704598711189;
}
probability ( 22 | 24 ) {
	(0) 0.998503340371, 0.000845938051306, 0.000498886543078, 0.00015183503485;
	(1) 0.124713771672, 0.381174353942, 0.449214916585, 0.0448969578018;
	(2) 0.238881621975, 0.00604970568999, 0.738554610857, 0.0165140614781;
	(3) 0.458868144691, 0.0201283547258, 0.0434655775963, 0.477537922987;
}
probability ( 23 | 22, 8 ) {
	(0, 0) 0.968801426873, 0.00925802615933, 0.0111985731272, 0.0107419738407;
	(0, 1) 0.944249649369, 0.0354137447405, 0.00175315568022, 0.0185834502104;
	(0, 2) 0.976015557476, 0.00108038029386, 0.021823681936, 0.00108038029386;
	(1, 0) 0.00448089279675, 0.966266486304, 0.0166553939804, 0.0125972269192;
	(1, 1) 0.659556313993, 0.290955631399, 0.0452218430034, 0.0042662116041;
	(1, 2) 0.00302663438257, 0.96186440678, 0.00302663438257, 0.0320823244552;
	(2, 0) 0.0126310772164, 0.00119161105815, 0.984985700667, 0.00119161105815;
	(2, 1) 0.527897457992, 0.455514864283, 0.00570874623007, 0.010878931495;
	(2, 2) 0.0170309230412, 0.00866077656359, 0.971227621483, 0.00308067891188;
	(3, 0) 0.0122119815668, 0.0232718894009, 0.0232718894009, 0.941244239631;
	(3, 1) 0.395945945946, 0.460810810811, 0.0716216216216, 0.0716216216216;
	(3, 2) 0.0027114967462, 0.0287418655098, 0.0027114967462, 0.965835140998;
}
probability ( 28 | 2, 25, 29 ) {
	(0, 0, 0) 0.078125, 0.921875;
	(0, 0, 1) 0.0178571428571, 0.982142857143;
	(0, 0, 2) 0.00115473441109, 0.998845265589;
	(0, 1, 0) 0.210714285714, 0.789285714286;
	(0, 1, 1) 0.322601839685, 0.677398160315;
	(0, 1, 2) 0.00973918785078, 0.990260812149;
	(0, 2, 0) 0.999348788747, 0.00065121125293;
	(0, 2, 1) 0.98951498081, 0.0104850191903;
	(0, 2, 2) 0.384913067863, 0.615086932137;
	(1, 0, 0) 0.0423728813559, 0.957627118644;
	(1, 0, 1) 0.0635775862069, 0.936422413793;
	(1, 0, 2) 0.000810898475511, 0.999189101524;
	(1, 1, 0) 0.5, 0.5;
	(1, 1, 1) 0.220368239356, 0.779631760644;
	(1, 1, 2) 0.00773871983211, 0.992261280168;
	(1, 2, 0) 0.982039148204, 0.0179608517961;
	(1, 2, 1) 0.99533485976, 0.00466514024041;
	(1, 2, 2) 0.557396523696, 0.442603476304;
	(2, 0, 0) 0.5, 0.5;
	(2, 0, 1) 0.255656108597, 0.744343891403;
	(2, 0, 2) 0.00146541617819, 0.998534583822;
	(2, 1, 0) 0.0423728813559, 0.957627118644;
	(2, 1, 1) 0.118951612903, 0.881048387097;
	(2, 1, 2) 0.000790139064475, 0.999209860936;
	(2, 2, 0) 0.722527472527, 0.277472527473;
	(2, 2, 1) 0.774011428571, 0.225988571429;
	(2, 2, 2) 0.0228865439607, 0.977113456039;
}
probability ( 29 ) {
	table 0.0372480426453, 0.653539896718, 0.309212060636
}
probability ( 1 | 14, 15 ) {
	(0, 0) 0.10936919073, 0.89063080927;
	(0, 1) 0.217647058824, 0.782352941176;
	(0, 2) 0.932432432432, 0.0675675675676;
	(0, 3) 0.102209944751, 0.897790055249;
	(1, 0) 0.968435498628, 0.0315645013724;
	(1, 1) 0.0024532555364, 0.997546744464;
	(1, 2) 0.0247524752475, 0.975247524752;
	(1, 3) 0.0213675213675, 0.978632478632;
	(2, 0) 0.918014989143, 0.0819850108566;
	(2, 1) 0.116320687187, 0.883679312813;
	(2, 2) 0.00138949456601, 0.998610505434;
	(2, 3) 0.0848776871757, 0.915122312824;
	(3, 0) 0.901433691756, 0.0985663082437;
	(3, 1) 0.0213675213675, 0.978632478632;
	(3, 2) 0.0294117647059, 0.970588235294;
	(3, 3) 0.00031867431485, 0.999681325685;
}
probability ( 0 | 2 ) {
	(0) 0.0283546755623, 0.971645324438;
	(1) 0.000457114361702, 0.999542885638;
	(2) 0.000632911392405, 0.999367088608;
}
probability ( 3 | 2, 25, 28 ) {
	(0, 0, 0) 0.5, 0.5;
	(0, 0, 1) 0.10592401803, 0.89407598197;
	(0, 1, 0) 0.100985221675, 0.899014778325;
	(0, 1, 1) 0.0829540753, 0.9170459247;
	(0, 2, 0) 0.0747509005498, 0.92524909945;
	(0, 2, 1) 0.37734241908, 0.62265758092;
	(1, 0, 0) 0.891304347826, 0.108695652174;
	(1, 0, 1) 0.114447711046, 0.885552288954;
	(1, 1, 0) 0.137583892617, 0.862416107383;
	(1, 1, 1) 0.121848739496, 0.878151260504;
	(1, 2, 0) 0.0819122497147, 0.918087750285;
	(1, 2, 1) 0.818198734648, 0.181801265352;
	(2, 0, 0) 0.5, 0.5;
	(2, 0, 1) 0.13191659984, 0.86808340016;
	(2, 1, 0) 0.108695652174, 0.891304347826;
	(2, 1, 1) 0.0953731994762, 0.904626800524;
	(2, 2, 0) 0.0329014930089, 0.967098506991;
	(2, 2, 1) 0.122982803311, 0.877017196689;
}
probability ( 2 | 29 ) {
	(0) 0.39862850328, 0.46839594514, 0.13297555158;
	(1) 0.371108618815, 0.502328031539, 0.126563349647;
	(2) 0.168911396042, 0.178285385914, 0.652803218044;
}
probability ( 5 | 4 ) {
	(0) 0.880337636544, 0.119662363456;
	(1) 0.0101299794769, 0.989870020523;
}
probability ( 4 | 9 ) {
	(0) 0.0393852751966, 0.960614724803;
	(1) 0.00561608175858, 0.994383918241;
	(2) 0.491432337434, 0.508567662566;
}
probability ( 7 ) {
	table 0.247442945194, 0.713909711811, 0.0386473429952
}
probability ( 6 | 4, 7, 9 ) {
	(0, 0, 0) 0.975209272376, 0.024790727624;
	(0, 0, 1) 0.306682577566, 0.693317422434;
	(0, 0, 2) 0.000766166104812, 0.999233833895;
	(0, 1, 0) 0.347457627119, 0.652542372881;
	(0, 1, 1) 0.010460251046, 0.989539748954;
	(0, 1, 2) 0.000733783387144, 0.999266216613;
	(0, 2, 0) 0.939024390244, 0.0609756097561;
	(0, 2, 1) 0.0609756097561, 0.939024390244;
	(0, 2, 2) 0.0609756097561, 0.939024390244;
	(1, 0, 0) 0.989968969861, 0.0100310301392;
	(1, 0, 1) 0.0441009872148, 0.955899012785;
	(1, 0, 2) 0.575125208681, 0.424874791319;
	(1, 1, 0) 0.172028469751, 0.827971530249;
	(1, 1, 1) 0.00018341728775, 0.999816582712;
	(1, 1, 2) 0.00337670894416, 0.996623291056;
	(1, 2, 0) 0.415208613728, 0.584791386272;
	(1, 2, 1) 0.000429627083691, 0.999570372916;
	(1, 2, 2) 0.00909090909091, 0.990909090909;
}
probability ( 9 ) {
	table 0.233050141596, 0.691121106114, 0.0758287522905
}
probability ( 8 | 15, 22, 27 ) {
	(0, 0, 0) 0.731095006574, 0.224719444699, 0.0441855487264;
	(0, 0, 1) 0.940743494005, 0.00083911988151, 0.0584173861134;
	(0, 0, 2) 0.994262765347, 0.00286861732645, 0.00286861732645;
	(0, 1, 0) 0.491749174917, 0.491749174917, 0.016501650165;
	(0, 1, 1) 0.993127147766, 0.00343642611684, 0.00343642611684;
	(0, 1, 2) 0.333333333333, 0.333333333333, 0.333333333333;
	(0, 2, 0) 0.894158075601, 0.00343642611684, 0.102405498282;
	(0, 2, 1) 0.333333333333, 0.333333333333, 0.333333333333;
	(0, 2, 2) 0.491749174917, 0.491749174917, 0.016501650165;
	(0, 3, 0) 0.994262765347, 0.00286861732645, 0.00286861732645;
	(0, 3, 1) 0.849462365591, 0.00488758553275, 0.145650048876;
	(0, 3, 2) 0.937106918239, 0.0314465408805, 0.0314465408805;
	(1, 0, 0) 0.985370950888, 0.0141540799848, 0.000474969127007;
	(1, 0, 1) 0.997558926562, 7.92556311126e-05, 0.00236181780716;
	(1, 0, 2) 0.983079526227, 0.00846023688663, 0.00846023688663;
	(1, 1, 0) 0.00286861732645, 0.829030407344, 0.16810097533;
	(1, 1, 1) 0.0654163875865, 0.0332663540969, 0.901317258317;
	(1, 1, 2) 0.016501650165, 0.016501650165, 0.96699669967;
	(1, 2, 0) 0.986394557823, 0.00680272108844, 0.00680272108844;
	(1, 2, 1) 0.333333333333, 0.333333333333, 0.333333333333;
	(1, 2, 2) 0.937106918239, 0.0314465408805, 0.0314465408805;
	(1, 3, 0) 0.983079526227, 0.00846023688663, 0.00846023688663;
	(1, 3, 1) 0.333333333333, 0.333333333333, 0.333333333333;
	(1, 3, 2) 0.333333333333, 0.333333333333, 0.333333333333;
	(2, 0, 0) 0.991972740382, 0.00798133708061, 4.59225378631e-05;
	(2, 0, 1) 0.997840926737, 6.21137302401e-06, 0.00215286189012;
	(2, 0, 2) 0.998965124702, 0.000517437648763, 0.000517437648763;
	(2, 1, 0) 0.803283627052, 0.195963247477, 0.000753125470703;
	(2, 1, 1) 0.982470751537, 0.00590918104303, 0.0116200674202;
	(2, 1, 2) 0.937106918239, 0.0314465408805, 0.0314465408805;
	(2, 2, 0) 0.436009808525, 0.240674075233, 0.323316116241;
	(2, 2, 1) 0.0248672813635, 0.0155823500333, 0.959550368603;
	(2, 2, 2) 0.0247370886022, 0.950525822796, 0.0247370886022;
	(2, 3, 0) 0.949653657712, 0.0251731711438, 0.0251731711438;
	(2, 3, 1) 0.748199366177, 0.00144050705848, 0.250360126765;
	(2, 3, 2) 0.977628635347, 0.0111856823266, 0.0111856823266;
	(3, 0, 0) 0.999087507984, 0.000456246007847, 0.000456246007847;
	(3, 0, 1) 0.997507727663, 8.09179330323e-05, 0.00241135440436;
	(3, 0, 2) 0.993127147766, 0.00343642611684, 0.00343642611684;
	(3, 1, 0) 0.795189003436, 0.201374570447, 0.00343642611684;
	(3, 1, 1) 0.995402298851, 0.00229885057471, 0.00229885057471;
	(3, 1, 2) 0.333333333333, 0.333333333333, 0.333333333333;
	(3, 2, 0) 0.937106918239, 0.0314465408805, 0.0314465408805;
	(3, 2, 1) 0.333333333333, 0.333333333333, 0.333333333333;
	(3, 2, 2) 0.333333333333, 0.333333333333, 0.333333333333;
	(3, 3, 0) 0.250431778929, 0.548877374784, 0.200690846287;
	(3, 3, 1) 0.0750704586216, 0.0381757622342, 0.886753779144;
	(3, 3, 2) 0.00846023688663, 0.495769881557, 0.495769881557;
}
probability ( 11 | 24, 26 ) {
	(0, 0) 0.0487316936782, 0.951268306322;
	(0, 1) 0.5, 0.5;
	(0, 2) 0.5, 0.5;
	(1, 0) 0.0551996339092, 0.944800366091;
	(1, 1) 0.0425219941349, 0.957478005865;
	(1, 2) 0.0280898876404, 0.97191011236;
	(2, 0) 0.85687732342, 0.14312267658;
	(2, 1) 0.00349819059107, 0.996501809409;
	(2, 2) 0.014450867052, 0.985549132948;
	(3, 0) 0.806569343066, 0.193430656934;
	(3, 1) 0.147058823529, 0.852941176471;
	(3, 2) 0.00103434009102, 0.998965659909;
}
probability ( 10 | 9 ) {
	(0) 0.952346914463, 0.0366928758637, 0.0109602096736;
	(1) 0.0381154390024, 0.952548528088, 0.00933603290911;
	(2) 0.0099589923843, 0.0336848271822, 0.956356180434;
}
probability ( 13 ) {
	table 0.0468432450441, 0.903215059137, 0.0499416958188
}
probability ( 12 ) {
	table 0.0474262868566, 0.952573713143
}
probability ( 15 ) {
	table 0.151649175412, 0.0570964517741, 0.73195902049, 0.0592953523238
}
probability ( 14 | 13, 15 ) {
	(0, 0) 0.22679558011, 0.77044198895, 0.00138121546961, 0.00138121546961;
	(0, 1) 0.000279704631909, 0.999160886104, 0.000279704631909, 0.000279704631909;
	(0, 2) 0.0123762376238, 0.725247524752, 0.25, 0.0123762376238;
	(0, 3) 0.25, 0.25, 0.00838926174497, 0.491610738255;
	(1, 0) 0.332083613883, 0.00742180326865, 0.65527636653, 0.00521821631879;
	(1, 1) 0.026946766388, 0.507369115706, 0.459854817422, 0.00582930048394;
	(1, 2) 0.000288107164455, 1.42627309136e-05, 0.999683367374, 1.42627309136e-05;
	(1, 3) 0.0444266788488, 0.0115349474646, 0.461055276382, 0.482983097305;
	(2, 0) 0.436528497409, 0.00129533678756, 0.00129533678756, 0.560880829016;
	(2, 1) 0.0110619469027, 0.329646017699, 0.0110619469027, 0.648230088496;
	(2, 2) 0.00912408759124, 0.00912408759124, 0.534671532847, 0.447080291971;
	(2, 3) 0.000261451579168, 0.00528132189918, 0.000261451579168, 0.994195774942;
}
probability ( 17 | 26, 27, 8 ) {
	(0, 0, 0) 0.925727441573, 0.0742725584275;
	(0, 0, 1) 0.9990063593, 0.000993640699523;
	(0, 0, 2) 0.925755584757, 0.0742444152431;
	(0, 1, 0) 0.00142519962312, 0.998574800377;
	(0, 1, 1) 0.0221238938053, 0.977876106195;
	(0, 1, 2) 0.00244326652311, 0.997556733477;
	(0, 2, 0) 0.0469413763806, 0.953058623619;
	(0, 2, 1) 0.5, 0.5;
	(0, 2, 2) 0.210714285714, 0.789285714286;
	(1, 0, 0) 0.000604448742747, 0.999395551257;
	(1, 0, 1) 0.0896656534954, 0.910334346505;
	(1, 0, 2) 0.00382848392037, 0.99617151608;
	(1, 1, 0) 0.0290697674419, 0.970930232558;
	(1, 1, 1) 0.977876106195, 0.0221238938053;
	(1, 1, 2) 0.0290697674419, 0.970930232558;
	(1, 2, 0) 0.781984334204, 0.218015665796;
	(1, 2, 1) 0.999414656989, 0.000585343011004;
	(1, 2, 2) 0.656976744186, 0.343023255814;
	(2, 0, 0) 0.150862068966, 0.849137931034;
	(2, 0, 1) 0.838803088803, 0.161196911197;
	(2, 0, 2) 0.118951612903, 0.881048387097;
	(2, 1, 0) 0.00184501845018, 0.99815498155;
	(2, 1, 1) 0.078125, 0.921875;
	(2, 1, 2) 0.0128865979381, 0.987113402062;
	(2, 2, 0) 0.0290697674419, 0.970930232558;
	(2, 2, 1) 0.5, 0.5;
	(2, 2, 2) 0.5, 0.5;
}
probability ( 16 | 36 ) {
	(0) 0.00171939477304, 0.998280605227;
	(1) 0.00221659278024, 0.99778340722;
	(2) 0.174330616997, 0.825669383003;
}
probability ( 19 | 15, 22 ) {
	(0, 0) 0.030670289086, 0.969329710914;
	(0, 1) 0.0939086294416, 0.906091370558;
	(0, 2) 0.0126903553299, 0.98730964467;
	(0, 3) 0.00769230769231, 0.992307692308;
	(1, 0) 0.0624014554275, 0.937598544572;
	(1, 1) 0.00344827586207, 0.996551724138;
	(1, 2) 0.0247524752475, 0.975247524752;
	(1, 3) 0.036231884058, 0.963768115942;
	(2, 0) 0.017799888903, 0.982200111097;
	(2, 1) 0.648439696373, 0.351560303627;
	(2, 2) 0.00186698960541, 0.998133010395;
	(2, 3) 0.0315645013724, 0.968435498628;
	(3, 0) 0.0119466343238, 0.988053365676;
	(3, 1) 0.875308641975, 0.124691358025;
	(3, 2) 0.119047619048, 0.880952380952;
	(3, 3) 0.00304506699147, 0.996954933009;
}
probability ( 32 | 2, 31 ) {
	(0, 0) 0.964383689031, 0.0228297763519, 0.0127865346166;
	(0, 1) 0.979447022428, 0.0115815931941, 0.00897138437742;
	(0, 2) 0.335062439962, 0.555523535062, 0.109414024976;
	(1, 0) 0.975152982315, 0.00833837670634, 0.0165086409791;
	(1, 1) 0.109981236003, 0.847043157194, 0.0429756068035;
	(1, 2) 0.0458995345851, 0.418552399294, 0.535548066121;
	(2, 0) 0.898129251701, 0.0922619047619, 0.00960884353741;
	(2, 1) 0.0593651825371, 0.198299209186, 0.742335608276;
	(2, 2) 0.011142721669, 0.095271963693, 0.893585314638;
}
probability ( 31 | 29, 7 ) {
	(0, 0) 0.974110032362, 0.0129449838188, 0.0129449838188;
	(0, 1) 0.946490139291, 0.0416494276651, 0.0118604330437;
	(0, 2) 0.731563421829, 0.253687315634, 0.0147492625369;
	(1, 0) 0.949033799615, 0.0402022873315, 0.0107639130536;
	(1, 1) 0.0421195867154, 0.947587854623, 0.010292558662;
	(1, 2) 0.0199004975124, 0.0237384506041, 0.956361051883;
	(2, 0) 0.298626787058, 0.693519563582, 0.00785364936042;
	(2, 1) 0.0123988580888, 0.302015236744, 0.685585905167;
	(2, 2) 0.0104370515329, 0.00163078930202, 0.987932159165;
}
probability ( 30 | 12, 29 ) {
	(0, 0) 0.964912280702, 0.0175438596491, 0.0175438596491;
	(0, 1) 0.417272896848, 0.571721693714, 0.0110054094385;
	(0, 2) 0.250431778929, 0.517789291883, 0.231778929188;
	(1, 0) 0.981628522497, 0.00918573875136, 0.00918573875136;
	(1, 1) 0.00917790537232, 0.980202074153, 0.0106200204745;
	(1, 2) 0.0106646966339, 0.0106646966339, 0.978670606732;
}
probability ( 36 ) {
	table 0.0484424454439, 0.894319506913, 0.0572380476428
}
probability ( 35 | 22, 25 ) {
	(0, 0) 0.986350221348, 0.000614854894245, 0.006517461879, 0.006517461879;
	(0, 1) 0.969365689572, 0.000600672753484, 0.0121335896204, 0.0179000480538;
	(0, 2) 0.973136439187, 0.00852684169089, 0.00922667936742, 0.00911003975467;
	(1, 0) 0.0192307692308, 0.757692307692, 0.0192307692308, 0.203846153846;
	(1, 1) 0.030487804878, 0.030487804878, 0.908536585366, 0.030487804878;
	(1, 2) 0.0138459375879, 0.00372504919876, 0.0104723081248, 0.971956705089;
	(2, 0) 0.00486381322957, 0.938715953307, 0.00486381322957, 0.0515564202335;
	(2, 1) 0.015943671091, 0.0275979281321, 0.944399482033, 0.0120589187439;
	(2, 2) 0.014161849711, 0.014161849711, 0.00583815028902, 0.965838150289;
	(3, 0) 0.0220524017467, 0.965283842795, 0.0115720524017, 0.00109170305677;
	(3, 1) 0.00776397515528, 0.00776397515528, 0.976708074534, 0.00776397515528;
	(3, 2) 0.00294117647059, 0.0311764705882, 0.00294117647059, 0.962941176471;
}
probability ( 34 | 18, 29 ) {
	(0, 0) 0.43979721166, 0.234474017744, 0.325728770596;
	(0, 1) 0.347873318292, 0.319294727166, 0.332831954542;
	(0, 2) 0.354781054513, 0.309740840036, 0.335478105451;
	(1, 0) 0.986146308498, 0.00996789998311, 0.00388579151884;
	(1, 1) 0.0116240577325, 0.979135336568, 0.00924060569948;
	(1, 2) 0.00800543011719, 0.00908346808808, 0.982911101795;
}
probability ( 33 | 18, 29 ) {
	(0, 0) 0.302915082383, 0.211660329531, 0.485424588086;
	(0, 1) 0.334336090917, 0.341856772792, 0.323807136291;
	(0, 2) 0.338695263628, 0.361215370867, 0.300089365505;
	(1, 0) 0.964858928873, 0.0190910626795, 0.0160500084474;
	(1, 1) 0.010432331716, 0.979135336568, 0.010432331716;
	(1, 2) 0.00764608412689, 0.00692739214629, 0.985426523727;
}
probability ( 18 ) {
	table 0.101899050475, 0.898100949525
}
