network unknown {
}
variable 24 {
	type discrete [ 4 ] { 0, 1, 2, 3 };
}
variable 25 {
	type discrete [ 3 ] { 0, 1, 2 };
}
variable 26 {
	type discrete [ 3 ] { 0, 1, 2 };
}
variable 27 {
	type discrete [ 3 ] { 0, 1, 2 };
}
variable 20 {
	type discrete [ 4 ] { 0, 1, 2, 3 };
}
variable 21 {
	type discrete [ 3 ] { 0, 1, 2 };
}
variable 22 {
	type discrete [ 4 ] { 0, 1, 2, 3 };
}
variable 23 {
	type discrete [ 4 ] { 0, 1, 2, 3 };
}
variable 28 {
	type discrete [ 2 ] { 0, 1 };
}
variable 29 {
	type discrete [ 3 ] { 0, 1, 2 };
}
variable 1 {
	type discrete [ 2 ] { 0, 1 };
}
variable 0 {
	type discrete [ 2 ] { 0, 1 };
}
variable 3 {
	type discrete [ 2 ] { 0, 1 };
}
variable 2 {
	type discrete [ 3 ] { 0, 1, 2 };
}
variable 5 {
	type discrete [ 2 ] { 0, 1 };
}
variable 4 {
	type discrete [ 2 ] { 0, 1 };
}
variable 7 {
	type discrete [ 3 ] { 0, 1, 2 };
}
variable 6 {
	type discrete [ 2 ] { 0, 1 };
}
variable 9 {
	type discrete [ 3 ] { 0, 1, 2 };
}
variable 8 {
	type discrete [ 3 ] { 0, 1, 2 };
}
variable 11 {
	type discrete [ 2 ] { 0, 1 };
}
variable 10 {
	type discrete [ 3 ] { 0, 1, 2 };
}
variable 13 {
	type discrete [ 3 ] { 0, 1, 2 };
}
variable 12 {
	type discrete [ 2 ] { 0, 1 };
}
variable 15 {
	type discrete [ 4 ] { 0, 1, 2, 3 };
}
variable 14 {
	type discrete [ 4 ] { 0, 1, 2, 3 };
}
variable 17 {
	type discrete [ 2 ] { 0, 1 };
}
variable 16 {
	type discrete [ 2 ] { 0, 1 };
}
variable 33 {
	type discrete [ 3 ] { 0, 1, 2 };
}
variable 18 {
	type discrete [ 2 ] { 0, 1 };
}
variable 31 {
	type discrete [ 3 ] { 0, 1, 2 };
}
variable 30 {
	type discrete [ 3 ] { 0, 1, 2 };
}
variable 36 {
	type discrete [ 3 ] { 0, 1, 2 };
}
variable 35 {
	type discrete [ 4 ] { 0, 1, 2, 3 };
}
variable 34 {
	type discrete [ 3 ] { 0, 1, 2 };
}
variable 19 {
	type discrete [ 2 ] { 0, 1 };
}
variable 32 {
	type discrete [ 3 ] { 0, 1, 2 };
}
probability ( 24 | 27 ) {
	(0) 0.680869666589, 0.0849265563068, 0.131790627186, 0.102413149918;
	(1) 0.913742924812, 0.0761611336357, 0.00257918188752, 0.00751675966441;
	(2) 0.307055214724, 0.0383435582822, 0.634662576687, 0.0199386503067;
}
probability ( 25 | 24, 34 ) {
	(0, 0) 0.00452018080723, 0.00884035361414, 0.986639465579;
	(0, 1) 0.00111912900367, 0.00166603367515, 0.997214837321;
	(0, 2) 0.0276490943315, 0.0260259921775, 0.946324913491;
	(1, 0) 0.00270124257158, 0.00270124257158, 0.994597514857;
	(1, 1) 0.00220964699542, 0.00220964699542, 0.995580706009;
	(1, 2) 0.0108343886309, 0.000703531729281, 0.98846207964;
	(2, 0) 0.0064850843061, 0.89364461738, 0.0998702983139;
	(2, 1) 0.03081232493, 0.866346538615, 0.102841136455;
	(2, 2) 0.0485177771423, 0.930416547517, 0.0210656753408;
	(3, 0) 0.96699669967, 0.016501650165, 0.016501650165;
	(3, 1) 0.849462365591, 0.11045943304, 0.0400782013685;
	(3, 2) 0.913887584155, 0.0740566776264, 0.0120557382183;
}
probability ( 26 | 11, 24 ) {
	(0, 0) 0.999011760055, 0.000494119972329, 0.000494119972329;
	(0, 1) 0.965965965966, 0.029029029029, 0.00500500500501;
	(0, 2) 0.931313131313, 0.0585858585859, 0.010101010101;
	(0, 3) 0.95670995671, 0.021645021645, 0.021645021645;
	(1, 0) 0.999949326807, 2.5336596687e-05, 2.5336596687e-05;
	(1, 1) 0.952372715217, 0.0376520786484, 0.00997520613504;
	(1, 2) 0.00887198986058, 0.951837769328, 0.0392902408112;
	(1, 3) 0.0107920993688, 0.00590511097536, 0.983302789656;
}
probability ( 27 ) {
	table 0.142895219057, 0.829951690821, 0.0271530901216
}
probability ( 20 | 15, 24 ) {
	(0, 0) 0.966976185274, 0.00984269171947, 0.0126392833734, 0.0105418396329;
	(0, 1) 0.956401766004, 0.00275938189845, 0.00275938189845, 0.0380794701987;
	(0, 2) 0.951234567901, 0.00308641975309, 0.00308641975309, 0.0425925925926;
	(0, 3) 0.962945590994, 0.00234521575985, 0.00234521575985, 0.0323639774859;
	(1, 0) 0.0959045006857, 0.810029921456, 0.0699725719985, 0.0240930058596;
	(1, 1) 0.0206093189964, 0.88082437276, 0.0588410991637, 0.03972520908;
	(1, 2) 0.0093984962406, 0.971804511278, 0.0093984962406, 0.0093984962406;
	(1, 3) 0.223154362416, 0.545302013423, 0.223154362416, 0.00838926174497;
	(2, 0) 0.0505167023533, 0.248673060104, 0.247868854107, 0.452941383435;
	(2, 1) 0.0160144999503, 0.0763978548019, 0.29886284636, 0.608724798888;
	(2, 2) 0.030055917987, 0.104613233924, 0.65037278658, 0.21495806151;
	(2, 3) 0.0288589119858, 0.255307386112, 0.227001326847, 0.488832375055;
	(3, 0) 0.0142902208202, 0.149558359621, 0.234353312303, 0.601798107256;
	(3, 1) 0.0198504027618, 0.075086306099, 0.0382623705409, 0.866800920598;
	(3, 2) 0.00586854460094, 0.080985915493, 0.156103286385, 0.757042253521;
	(3, 3) 0.00257731958763, 0.0355670103093, 0.200515463918, 0.761340206186;
}
probability ( 21 | 4, 6 ) {
	(0, 0) 0.896762904637, 0.0988626421697, 0.00437445319335;
	(0, 1) 0.0304143702796, 0.321902429067, 0.647683200653;
	(1, 0) 0.930499236974, 0.0514933507739, 0.018007412252;
	(1, 1) 0.0841100973837, 0.871699438973, 0.0441904636431;
}
probability ( 22 | 14, 24 ) {
	(0, 0) 0.999520030718, 0.000159989760655, 0.000159989760655, 0.000159989760655;
	(0, 1) 0.531690140845, 0.306338028169, 0.00586854460094, 0.156103286385;
	(0, 2) 0.589393939394, 0.00757575757576, 0.395454545455, 0.00757575757576;
	(0, 3) 0.53729281768, 0.00690607734807, 0.00690607734807, 0.448895027624;
	(1, 0) 0.995433644144, 0.00424703027207, 0.000159662792183, 0.000159662792183;
	(1, 1) 0.159732016925, 0.814174894217, 0.00176304654443, 0.0243300423131;
	(1, 2) 0.298484848485, 0.00757575757576, 0.686363636364, 0.00757575757576;
	(1, 3) 0.545302013423, 0.00838926174497, 0.00838926174497, 0.437919463087;
	(2, 0) 0.998715719936, 0.000567169368508, 0.000567169368508, 0.000149941327307;
	(2, 1) 0.117532223163, 0.347845516982, 0.51644086932, 0.0181813905353;
	(2, 2) 0.224454497073, 0.0058985275856, 0.763748447756, 0.0058985275856;
	(2, 3) 0.481491920331, 0.0245208568207, 0.054584742578, 0.439402480271;
	(3, 0) 0.997408476578, 0.00226348248261, 0.000164020469755, 0.000164020469755;
	(3, 1) 0.0727474150665, 0.474519940916, 0.00184638109306, 0.450886262925;
	(3, 2) 0.330536912752, 0.00838926174497, 0.223154362416, 0.437919463087;
	(3, 3) 0.259153318078, 0.00286041189931, 0.00286041189931, 0.735125858124;
}
probability ( 23 | 22, 8 ) {
	(0, 0) 0.968801426873, 0.00925802615933, 0.0111985731272, 0.0107419738407;
	(0, 1) 0.944249649369, 0.0354137447405, 0.00175315568022, 0.0185834502104;
	(0, 2) 0.976015557476, 0.00108038029386, 0.021823681936, 0.00108038029386;
	(1, 0) 0.00448089279675, 0.966266486304, 0.0166553939804, 0.0125972269192;
	(1, 1) 0.659556313993, 0.290955631399, 0.0452218430034, 0.0042662116041;
	(1, 2) 0.00302663438257, 0.96186440678, 0.00302663438257, 0.0320823244552;
	(2, 0) 0.0126310772164, 0.00119161105815, 0.984985700667, 0.00119161105815;
	(2, 1) 0.527897457992, 0.455514864283, 0.00570874623007, 0.010878931495;
	(2, 2) 0.0170309230412, 0.00866077656359, 0.971227621483, 0.00308067891188;
	(3, 0) 0.0122119815668, 0.0232718894009, 0.0232718894009, 0.941244239631;
	(3, 1) 0.395945945946, 0.460810810811, 0.0716216216216, 0.0716216216216;
	(3, 2) 0.0027114967462, 0.0287418655098, 0.0027114967462, 0.965835140998;
}
probability ( 28 | 2, 26, 29, 3 ) {
	(0, 0, 0, 0) 0.93498273878, 0.0650172612198;
	(0, 0, 0, 1) 0.991831718953, 0.0081682810467;
	(0, 0, 1, 0) 0.926330649378, 0.0736693506222;
	(0, 0, 1, 1) 0.992273082121, 0.00772691787894;
	(0, 0, 2, 0) 0.152523627589, 0.847476372411;
	(0, 0, 2, 1) 0.388148100201, 0.611851899799;
	(0, 1, 0, 0) 0.5, 0.5;
	(0, 1, 0, 1) 0.338323353293, 0.661676646707;
	(0, 1, 1, 0) 0.828267477204, 0.171732522796;
	(0, 1, 1, 1) 0.53115983843, 0.46884016157;
	(0, 1, 2, 0) 0.0065274151436, 0.993472584856;
	(0, 1, 2, 1) 0.025549132948, 0.974450867052;
	(0, 2, 0, 0) 0.5, 0.5;
	(0, 2, 0, 1) 0.0423728813559, 0.957627118644;
	(0, 2, 1, 0) 0.5, 0.5;
	(0, 2, 1, 1) 0.401818181818, 0.598181818182;
	(0, 2, 2, 0) 0.00759878419453, 0.992401215805;
	(0, 2, 2, 1) 0.0204784342153, 0.979521565785;
	(1, 0, 0, 0) 0.878597785978, 0.121402214022;
	(1, 0, 0, 1) 0.992886818582, 0.0071131814176;
	(1, 0, 1, 0) 0.947410386189, 0.0525896138113;
	(1, 0, 1, 1) 0.996615234875, 0.00338476512538;
	(1, 0, 2, 0) 0.106336744708, 0.893663255292;
	(1, 0, 2, 1) 0.662214825039, 0.337785174961;
	(1, 1, 0, 0) 0.5, 0.5;
	(1, 1, 0, 1) 0.957627118644, 0.0423728813559;
	(1, 1, 1, 0) 0.401818181818, 0.598181818182;
	(1, 1, 1, 1) 0.414067472947, 0.585932527053;
	(1, 1, 2, 0) 0.0799151343706, 0.920084865629;
	(1, 1, 2, 1) 0.000502714659159, 0.999497285341;
	(1, 2, 0, 0) 0.5, 0.5;
	(1, 2, 0, 1) 0.0423728813559, 0.957627118644;
	(1, 2, 1, 0) 0.957627118644, 0.0423728813559;
	(1, 2, 1, 1) 0.145203679369, 0.854796320631;
	(1, 2, 2, 0) 0.0065274151436, 0.993472584856;
	(1, 2, 2, 1) 0.000585343011004, 0.999414656989;
	(2, 0, 0, 0) 0.5, 0.5;
	(2, 0, 0, 1) 0.716954600241, 0.283045399759;
	(2, 0, 1, 0) 0.466735112936, 0.533264887064;
	(2, 0, 1, 1) 0.791576673866, 0.208423326134;
	(2, 0, 2, 0) 0.00464829288359, 0.995351707116;
	(2, 0, 2, 1) 0.0248600814276, 0.975139918572;
	(2, 1, 0, 0) 0.5, 0.5;
	(2, 1, 0, 1) 0.0423728813559, 0.957627118644;
	(2, 1, 1, 0) 0.5, 0.5;
	(2, 1, 1, 1) 0.335030549898, 0.664969450102;
	(2, 1, 2, 0) 0.0045871559633, 0.995412844037;
	(2, 1, 2, 1) 0.000537750053775, 0.999462249946;
	(2, 2, 0, 0) 0.5, 0.5;
	(2, 2, 0, 1) 0.5, 0.5;
	(2, 2, 1, 0) 0.5, 0.5;
	(2, 2, 1, 1) 0.129290617849, 0.870709382151;
	(2, 2, 2, 0) 0.00759878419453, 0.992401215805;
	(2, 2, 2, 1) 0.00112663361875, 0.998873366381;
}
probability ( 29 | 26, 33 ) {
	(0, 0) 0.454961276574, 0.394615104735, 0.150423618691;
	(0, 1) 0.00253020821762, 0.978610483702, 0.0188593080806;
	(0, 2) 0.00935711140467, 0.10112560546, 0.889517283135;
	(1, 0) 0.238396624473, 0.0675105485232, 0.694092827004;
	(1, 1) 0.0021645021645, 0.890476190476, 0.107359307359;
	(1, 2) 0.00434841690447, 0.0153553471939, 0.980296235902;
	(2, 0) 0.20701754386, 0.112280701754, 0.680701754386;
	(2, 1) 0.00480307396734, 0.756964457253, 0.23823246878;
	(2, 2) 0.00106089539571, 0.00106089539571, 0.997878209209;
}
probability ( 1 | 35 ) {
	(0) 0.110604710009, 0.889395289991;
	(1) 0.0960832313341, 0.903916768666;
	(2) 0.0448671931084, 0.955132806892;
	(3) 0.0324760962743, 0.967523903726;
}
probability ( 0 ) {
	table 0.00914542728636, 0.990854572714
}
probability ( 3 | 31 ) {
	(0) 0.0989144407942, 0.901085559206;
	(1) 0.0935027919963, 0.906497208004;
	(2) 0.144194434902, 0.855805565098;
}
probability ( 2 | 0 ) {
	(0) 0.959927140255, 0.0200364298725, 0.0200364298725;
	(1) 0.303609555993, 0.404381230981, 0.292009213026;
}
probability ( 5 | 4 ) {
	(0) 0.880337636544, 0.119662363456;
	(1) 0.0101299794769, 0.989870020523;
}
probability ( 4 | 6, 7 ) {
	(0, 0) 0.0477163984341, 0.952283601566;
	(0, 1) 0.02, 0.98;
	(0, 2) 0.121848739496, 0.878151260504;
	(1, 0) 0.356207204525, 0.643792795475;
	(1, 1) 0.0289057528694, 0.971094247131;
	(1, 2) 0.0120399818264, 0.987960018174;
}
probability ( 7 | 29, 31, 6 ) {
	(0, 0, 0) 0.957687576876, 0.0410824108241, 0.00123001230012;
	(0, 0, 1) 0.0616442930608, 0.905563347359, 0.0327923595806;
	(0, 1, 0) 0.479674796748, 0.0406504065041, 0.479674796748;
	(0, 1, 1) 0.00697350069735, 0.835425383543, 0.15760111576;
	(0, 2, 0) 0.333333333333, 0.333333333333, 0.333333333333;
	(0, 2, 1) 0.255411255411, 0.722943722944, 0.021645021645;
	(1, 0, 0) 0.997292148806, 0.00262913458965, 7.87166044805e-05;
	(1, 0, 1) 0.632009305826, 0.358582229977, 0.00940846419652;
	(1, 1, 0) 0.547746674608, 0.429819336907, 0.0224339884852;
	(1, 1, 1) 0.00296663687442, 0.996106026847, 0.00092733627899;
	(1, 2, 0) 0.479972844535, 0.0400543109301, 0.479972844535;
	(1, 2, 1) 0.0142461161606, 0.163927028943, 0.821826854896;
	(2, 0, 0) 0.998961254804, 0.000519372597902, 0.000519372597902;
	(2, 0, 1) 0.669489685125, 0.31769815418, 0.0128121606949;
	(2, 1, 0) 0.983223072599, 0.0165607298828, 0.000216197518052;
	(2, 1, 1) 0.160318025395, 0.839563308413, 0.000118666192002;
	(2, 2, 0) 0.241025641026, 0.63663003663, 0.122344322344;
	(2, 2, 1) 5.80053132867e-05, 0.931600134572, 0.0683418601144;
}
probability ( 6 ) {
	table 0.200549725137, 0.799450274863
}
probability ( 9 | 21, 6 ) {
	(0, 0) 0.999701928522, 0.00014903573877, 0.00014903573877;
	(0, 1) 0.535125906957, 0.447545881349, 0.0173282116944;
	(1, 0) 0.707367336425, 0.215868109222, 0.0767645543534;
	(1, 1) 0.00256049266843, 0.967166415557, 0.0302730917743;
	(2, 0) 0.639553429027, 0.00797448165869, 0.352472089314;
	(2, 1) 0.00713161063258, 0.122163563953, 0.870704825414;
}
probability ( 8 | 15, 17, 24 ) {
	(0, 0, 0) 0.704148079783, 0.251294672614, 0.0445572476029;
	(0, 0, 1) 0.70596797671, 0.147016011645, 0.147016011645;
	(0, 0, 2) 0.650165016502, 0.333333333333, 0.016501650165;
	(0, 0, 3) 0.951690821256, 0.024154589372, 0.024154589372;
	(0, 1, 0) 0.941242880304, 0.00085733445381, 0.057899785242;
	(0, 1, 1) 0.947808961103, 0.00246184145741, 0.0497291974397;
	(0, 1, 2) 0.905030559473, 0.00235072872591, 0.0926187118007;
	(0, 1, 3) 0.996656636576, 0.0016716817118, 0.0016716817118;
	(1, 0, 0) 0.981013791868, 0.0180906322766, 0.000895575855275;
	(1, 0, 1) 0.201374570447, 0.66323024055, 0.135395189003;
	(1, 0, 2) 0.90990990991, 0.045045045045, 0.045045045045;
	(1, 0, 3) 0.90990990991, 0.045045045045, 0.045045045045;
	(1, 1, 0) 0.990738781938, 0.000117528147991, 0.00914368991373;
	(1, 1, 1) 0.243622091393, 0.0283151107373, 0.728062797869;
	(1, 1, 2) 0.985443959243, 0.00727802037846, 0.00727802037846;
	(1, 1, 3) 0.987228607918, 0.00638569604087, 0.00638569604087;
	(2, 0, 0) 0.988318517377, 0.0115958412552, 8.56413682065e-05;
	(2, 0, 1) 0.524916358514, 0.203733051594, 0.271350589893;
	(2, 0, 2) 0.0593699289351, 0.940350288176, 0.000279782888479;
	(2, 0, 3) 0.829030407344, 0.113023522662, 0.0579460699943;
	(2, 1, 0) 0.997128950247, 0.000187565346095, 0.00268348440701;
	(2, 1, 1) 0.421028592308, 0.0018452544076, 0.577126153284;
	(2, 1, 2) 0.851805293666, 0.0740973531671, 0.0740973531671;
	(2, 1, 3) 0.950435591643, 0.000422904508162, 0.0491415038484;
	(3, 0, 0) 0.997923156802, 0.00103842159917, 0.00103842159917;
	(3, 0, 1) 0.662382176521, 0.16880891174, 0.16880891174;
	(3, 0, 2) 0.045045045045, 0.90990990991, 0.045045045045;
	(3, 0, 3) 0.183940242764, 0.811391223156, 0.0046685340803;
	(3, 1, 0) 0.99751959752, 0.000117000117, 0.0023634023634;
	(3, 1, 1) 0.428218433407, 0.00123548307388, 0.570546083519;
	(3, 1, 2) 0.662382176521, 0.00428449014567, 0.333333333333;
	(3, 1, 3) 0.785753126699, 0.21152800435, 0.00271886895052;
}
probability ( 11 ) {
	table 0.0493253373313, 0.950674662669
}
probability ( 10 | 9 ) {
	(0) 0.952346914463, 0.0366928758637, 0.0109602096736;
	(1) 0.0381154390024, 0.952548528088, 0.00933603290911;
	(2) 0.0099589923843, 0.0336848271822, 0.956356180434;
}
probability ( 13 ) {
	table 0.0468432450441, 0.903215059137, 0.0499416958188
}
probability ( 12 ) {
	table 0.0474262868566, 0.952573713143
}
probability ( 15 | 1, 14 ) {
	(0, 0) 0.925052410901, 0.019392033543, 0.0361635220126, 0.019392033543;
	(0, 1) 0.978280961183, 0.0170979667283, 0.00231053604436, 0.00231053604436;
	(0, 2) 0.967554997785, 0.0119961612284, 0.0119961612284, 0.00845267975786;
	(0, 3) 0.990157480315, 0.00328083989501, 0.00328083989501, 0.00328083989501;
	(1, 0) 0.968792127258, 0.00896468050688, 0.000337018064168, 0.0219061741709;
	(1, 1) 0.00444015444015, 0.968146718147, 0.012676962677, 0.0147361647362;
	(1, 2) 0.00971966186704, 0.0102511085646, 0.969778121004, 0.0102511085646;
	(1, 3) 0.0101575966511, 0.0140975129279, 0.0101575966511, 0.96558729377;
}
probability ( 14 | 13 ) {
	(0) 0.0435633001422, 0.937588904694, 0.00515647226174, 0.0136913229018;
	(1) 0.0517244559203, 0.011997417927, 0.925608631501, 0.0106694946514;
	(2) 0.070880587058, 0.0108405603736, 0.0128418945964, 0.905436957972;
}
probability ( 17 | 26, 27 ) {
	(0, 0) 0.932059338622, 0.0679406613784;
	(0, 1) 0.00149100673314, 0.998508993267;
	(0, 2) 0.0570228091236, 0.942977190876;
	(1, 0) 0.0067409144197, 0.99325908558;
	(1, 1) 0.405263157895, 0.594736842105;
	(1, 2) 0.975632911392, 0.0243670886076;
	(2, 0) 0.230742778542, 0.769257221458;
	(2, 1) 0.00474383301708, 0.995256166983;
	(2, 2) 0.078125, 0.921875;
}
probability ( 16 | 17, 8 ) {
	(0, 0) 0.0122386993032, 0.987761300697;
	(0, 1) 0.00152718387294, 0.998472816127;
	(0, 2) 0.170157068063, 0.829842931937;
	(1, 0) 0.0119266425643, 0.988073357436;
	(1, 1) 0.22268907563, 0.77731092437;
	(1, 2) 0.000840336134454, 0.999159663866;
}
probability ( 33 | 2, 24 ) {
	(0, 0) 0.0897771608249, 0.756464859976, 0.153757979199;
	(0, 1) 0.0855675398048, 0.769696969697, 0.144735490498;
	(0, 2) 0.0409745293466, 0.232336655592, 0.726688815061;
	(0, 3) 0.0354022988506, 0.0850574712644, 0.879540229885;
	(1, 0) 0.0813286417566, 0.790522695901, 0.128148662342;
	(1, 1) 0.0751159806534, 0.832000789656, 0.092883229691;
	(1, 2) 0.0687770868664, 0.224797437347, 0.706425475787;
	(1, 3) 0.0611341632089, 0.16071922545, 0.778146611342;
	(2, 0) 0.0531998105122, 0.301472937392, 0.645327252096;
	(2, 1) 0.0524388649143, 0.320779390611, 0.626781744475;
	(2, 2) 0.046966235085, 0.0926631124651, 0.86037065245;
	(2, 3) 0.0400416016641, 0.208528341134, 0.751430057202;
}
probability ( 18 | 29, 33, 34 ) {
	(0, 0, 0) 0.0221515326778, 0.977848467322;
	(0, 0, 1) 0.261061946903, 0.738938053097;
	(0, 0, 2) 0.823353293413, 0.176646706587;
	(0, 1, 0) 0.255656108597, 0.744343891403;
	(0, 1, 1) 0.921875, 0.078125;
	(0, 1, 2) 0.98502994012, 0.0149700598802;
	(0, 2, 0) 0.664634146341, 0.335365853659;
	(0, 2, 1) 0.988687782805, 0.0113122171946;
	(0, 2, 2) 0.970930232558, 0.0290697674419;
	(1, 0, 0) 0.998661670236, 0.00133832976445;
	(1, 0, 1) 0.541295884316, 0.458704115684;
	(1, 0, 2) 0.998859489051, 0.00114051094891;
	(1, 1, 0) 0.550273088381, 0.449726911619;
	(1, 1, 1) 0.0133351074533, 0.986664892547;
	(1, 1, 2) 0.560883944678, 0.439116055322;
	(1, 2, 0) 0.986541970803, 0.0134580291971;
	(1, 2, 1) 0.516104980614, 0.483895019386;
	(1, 2, 2) 0.998699271592, 0.00130072840791;
	(2, 0, 0) 0.997805092186, 0.00219490781387;
	(2, 0, 1) 0.996714848883, 0.00328515111695;
	(2, 0, 2) 0.624588002637, 0.375411997363;
	(2, 1, 0) 0.997441146366, 0.00255885363357;
	(2, 1, 1) 0.997575169738, 0.00242483026188;
	(2, 1, 2) 0.666126943005, 0.333873056995;
	(2, 2, 0) 0.592276144908, 0.407723855092;
	(2, 2, 1) 0.545302013423, 0.454697986577;
	(2, 2, 2) 0.0114051652696, 0.98859483473;
}
probability ( 31 | 2, 30, 32, 6 ) {
	(0, 0, 0, 0) 0.962577030812, 0.036862745098, 0.000560224089636;
	(0, 0, 0, 1) 0.650126793081, 0.319026531925, 0.0308466749934;
	(0, 0, 1, 0) 0.333333333333, 0.333333333333, 0.333333333333;
	(0, 0, 1, 1) 0.300305810398, 0.102140672783, 0.59755351682;
	(0, 0, 2, 0) 0.333333333333, 0.333333333333, 0.333333333333;
	(0, 0, 2, 1) 0.0282485875706, 0.0282485875706, 0.943502824859;
	(0, 1, 0, 0) 0.896193279581, 0.0968246519631, 0.00698206845556;
	(0, 1, 0, 1) 0.0938326831383, 0.887049848288, 0.0191174685739;
	(0, 1, 1, 0) 0.853701270258, 0.00219010074463, 0.144108628997;
	(0, 1, 1, 1) 0.0369200691781, 0.231821941499, 0.731257989323;
	(0, 1, 2, 0) 0.581419091373, 0.167942827973, 0.250638080653;
	(0, 1, 2, 1) 0.0809348093481, 0.479458794588, 0.439606396064;
	(0, 2, 0, 0) 0.299001843728, 0.680081378346, 0.0209167779261;
	(0, 2, 0, 1) 0.0984497888375, 0.553195255797, 0.348354955365;
	(0, 2, 1, 0) 0.00998003992016, 0.333333333333, 0.656686626747;
	(0, 2, 1, 1) 0.000212720697724, 0.00710487130398, 0.992682407998;
	(0, 2, 2, 0) 0.492625368732, 0.0147492625369, 0.492625368732;
	(0, 2, 2, 1) 0.00106089539571, 0.104179927859, 0.894759176745;
	(1, 0, 0, 0) 0.980002325311, 0.0194163469364, 0.000581327752587;
	(1, 0, 0, 1) 0.985283102005, 0.00735844899758, 0.00735844899758;
	(1, 0, 1, 0) 0.943502824859, 0.0282485875706, 0.0282485875706;
	(1, 0, 1, 1) 0.000497067302913, 0.870166020479, 0.129336912218;
	(1, 0, 2, 0) 0.333333333333, 0.333333333333, 0.333333333333;
	(1, 0, 2, 1) 0.300305810398, 0.20122324159, 0.498470948012;
	(1, 1, 0, 0) 0.987634704973, 0.0105602213647, 0.00180507366214;
	(1, 1, 0, 1) 0.524331997931, 0.458067155111, 0.017600846958;
	(1, 1, 1, 0) 0.11803793645, 0.763924127099, 0.11803793645;
	(1, 1, 1, 1) 0.00109889742845, 0.959925315056, 0.0389757875153;
	(1, 1, 2, 0) 0.475563359672, 0.191103306994, 0.333333333333;
	(1, 1, 2, 1) 0.0271802567951, 0.502617975654, 0.47020176755;
	(1, 2, 0, 0) 0.784719167033, 0.214547587623, 0.000733245343892;
	(1, 2, 0, 1) 0.399863107461, 0.377686516085, 0.222450376454;
	(1, 2, 1, 0) 0.000422261633308, 0.985474199814, 0.0141035385525;
	(1, 2, 1, 1) 0.000128551227664, 0.558246561255, 0.441624887518;
	(1, 2, 2, 0) 0.00506585612969, 0.333333333333, 0.661600810537;
	(1, 2, 2, 1) 0.000208411487641, 0.0272185402859, 0.972573048226;
	(2, 0, 0, 0) 0.996766892984, 0.00161655350792, 0.00161655350792;
	(2, 0, 0, 1) 0.97137626893, 0.0277916458645, 0.000832085205525;
	(2, 0, 1, 0) 0.0147492625369, 0.970501474926, 0.0147492625369;
	(2, 0, 1, 1) 0.416028586013, 0.333333333333, 0.250638080653;
	(2, 0, 2, 0) 0.127383676583, 0.868802440885, 0.00381388253242;
	(2, 0, 2, 1) 0.0233795324094, 0.476970460591, 0.499650007;
	(2, 1, 0, 0) 0.98390439015, 0.00804780492506, 0.00804780492506;
	(2, 1, 0, 1) 0.662711978015, 0.326094242241, 0.011193779744;
	(2, 1, 1, 0) 0.665203394791, 0.191103306994, 0.143693298215;
	(2, 1, 1, 1) 0.0950178125166, 0.887488701016, 0.0174934864678;
	(2, 1, 2, 0) 0.00255232261358, 0.829504849413, 0.167942827973;
	(2, 1, 2, 1) 0.00206547685305, 0.889676326172, 0.108258196975;
	(2, 2, 0, 0) 0.867359942907, 0.132385176123, 0.000254880970587;
	(2, 2, 0, 1) 0.505563824509, 0.379261464314, 0.115174711177;
	(2, 2, 1, 0) 0.0860413914575, 0.899251431088, 0.0147071774549;
	(2, 2, 1, 1) 0.0207677384473, 0.489616130776, 0.489616130776;
	(2, 2, 2, 0) 0.00548062091825, 0.925240392504, 0.0692789865774;
	(2, 2, 2, 1) 2.47886765326e-05, 0.288356758633, 0.711618452691;
}
probability ( 30 | 12, 29 ) {
	(0, 0) 0.964912280702, 0.0175438596491, 0.0175438596491;
	(0, 1) 0.417272896848, 0.571721693714, 0.0110054094385;
	(0, 2) 0.250431778929, 0.517789291883, 0.231778929188;
	(1, 0) 0.981628522497, 0.00918573875136, 0.00918573875136;
	(1, 1) 0.00917790537232, 0.980202074153, 0.0106200204745;
	(1, 2) 0.0106646966339, 0.0106646966339, 0.978670606732;
}
probability ( 36 | 16 ) {
	(0) 0.00691562932227, 0.16459197787, 0.828492392808;
	(1) 0.048948690711, 0.903215472035, 0.0478358372536;
}
probability ( 35 | 22, 25 ) {
	(0, 0) 0.986350221348, 0.000614854894245, 0.006517461879, 0.006517461879;
	(0, 1) 0.969365689572, 0.000600672753484, 0.0121335896204, 0.0179000480538;
	(0, 2) 0.973136439187, 0.00852684169089, 0.00922667936742, 0.00911003975467;
	(1, 0) 0.0192307692308, 0.757692307692, 0.0192307692308, 0.203846153846;
	(1, 1) 0.030487804878, 0.030487804878, 0.908536585366, 0.030487804878;
	(1, 2) 0.0138459375879, 0.00372504919876, 0.0104723081248, 0.971956705089;
	(2, 0) 0.00486381322957, 0.938715953307, 0.00486381322957, 0.0515564202335;
	(2, 1) 0.015943671091, 0.0275979281321, 0.944399482033, 0.0120589187439;
	(2, 2) 0.014161849711, 0.014161849711, 0.00583815028902, 0.965838150289;
	(3, 0) 0.0220524017467, 0.965283842795, 0.0115720524017, 0.00109170305677;
	(3, 1) 0.00776397515528, 0.00776397515528, 0.976708074534, 0.00776397515528;
	(3, 2) 0.00294117647059, 0.0311764705882, 0.00294117647059, 0.962941176471;
}
probability ( 34 | 28, 33 ) {
	(0, 0) 0.616944994811, 0.231436928012, 0.151618077177;
	(0, 1) 0.0270762494309, 0.951253063636, 0.0216706869327;
	(0, 2) 0.169976689977, 0.218648018648, 0.611375291375;
	(1, 0) 0.449688986462, 0.192828393707, 0.357482619832;
	(1, 1) 0.0979388770434, 0.742714996446, 0.15934612651;
	(1, 2) 0.0193790828254, 0.0225251796989, 0.958095737476;
}
probability ( 19 | 20, 22, 8 ) {
	(0, 0, 0) 0.0251793176573, 0.974820682343;
	(0, 0, 1) 0.0417904115401, 0.95820958846;
	(0, 0, 2) 0.0253018237863, 0.974698176214;
	(0, 1, 0) 0.127425614489, 0.872574385511;
	(0, 1, 1) 0.0471698113208, 0.952830188679;
	(0, 1, 2) 0.5, 0.5;
	(0, 2, 0) 0.00397456279809, 0.996025437202;
	(0, 2, 1) 0.0126903553299, 0.98730964467;
	(0, 2, 2) 0.0102040816327, 0.989795918367;
	(0, 3, 0) 0.00246791707799, 0.997532082922;
	(0, 3, 1) 0.5, 0.5;
	(0, 3, 2) 0.0167785234899, 0.98322147651;
	(1, 0, 0) 0.00621793026787, 0.993782069732;
	(1, 0, 1) 0.0167785234899, 0.98322147651;
	(1, 0, 2) 0.993573264781, 0.00642673521851;
	(1, 1, 0) 0.075710991545, 0.924289008455;
	(1, 1, 1) 0.0046904315197, 0.99530956848;
	(1, 1, 2) 0.00185322461082, 0.998146775389;
	(1, 2, 0) 0.00216076058773, 0.997839239412;
	(1, 2, 1) 0.0471698113208, 0.952830188679;
	(1, 2, 2) 0.0167785234899, 0.98322147651;
	(1, 3, 0) 0.00272628135224, 0.997273718648;
	(1, 3, 1) 0.5, 0.5;
	(1, 3, 2) 0.0471698113208, 0.952830188679;
	(2, 0, 0) 0.0108182603244, 0.989181739676;
	(2, 0, 1) 0.0126903553299, 0.98730964467;
	(2, 0, 2) 0.5, 0.5;
	(2, 1, 0) 0.515103838892, 0.484896161108;
	(2, 1, 1) 0.0471698113208, 0.952830188679;
	(2, 1, 2) 0.0167785234899, 0.98322147651;
	(2, 2, 0) 0.00272628135224, 0.997273718648;
	(2, 2, 1) 0.000281373100732, 0.999718626899;
	(2, 2, 2) 0.000377130788958, 0.999622869211;
	(2, 3, 0) 0.00369276218612, 0.996307237814;
	(2, 3, 1) 0.0471698113208, 0.952830188679;
	(2, 3, 2) 0.0247524752475, 0.975247524752;
	(3, 0, 0) 0.0331419910349, 0.966858008965;
	(3, 0, 1) 0.98322147651, 0.0167785234899;
	(3, 0, 2) 0.0102040816327, 0.989795918367;
	(3, 1, 0) 0.793937538273, 0.206062461727;
	(3, 1, 1) 0.99530956848, 0.0046904315197;
	(3, 1, 2) 0.0167785234899, 0.98322147651;
	(3, 2, 0) 0.0338245144005, 0.966175485599;
	(3, 2, 1) 0.0167785234899, 0.98322147651;
	(3, 2, 2) 0.00024555544642, 0.999754444554;
	(3, 3, 0) 0.0568378534334, 0.943162146567;
	(3, 3, 1) 0.00369276218612, 0.996307237814;
	(3, 3, 2) 0.00162232316677, 0.998377676833;
}
probability ( 32 | 2, 29, 6 ) {
	(0, 0, 0) 0.994262765347, 0.00286861732645, 0.00286861732645;
	(0, 0, 1) 0.964007007485, 0.026596591814, 0.00939640070075;
	(0, 1, 0) 0.945592366001, 0.0292816191466, 0.0251260148524;
	(0, 1, 1) 0.946956066448, 0.0401446998905, 0.0128992336618;
	(0, 2, 0) 0.950275261943, 0.0296572544841, 0.0200674835731;
	(0, 2, 1) 0.557267454731, 0.373179262408, 0.0695532828618;
	(1, 0, 0) 0.994750656168, 0.00262467191601, 0.00262467191601;
	(1, 0, 1) 0.941231219253, 0.036564286664, 0.0222044940832;
	(1, 1, 0) 0.894024550513, 0.0741268909208, 0.0318485585661;
	(1, 1, 1) 0.201768324117, 0.725740273864, 0.0724914020183;
	(1, 2, 0) 0.322339288441, 0.627424034204, 0.0502366773553;
	(1, 2, 1) 0.0885302345599, 0.562642565096, 0.348827200344;
	(2, 0, 0) 0.884684684685, 0.00900900900901, 0.106306306306;
	(2, 0, 1) 0.791607732202, 0.129655822725, 0.0787364450731;
	(2, 1, 0) 0.848737465265, 0.11803793645, 0.0332245982844;
	(2, 1, 1) 0.141028809975, 0.175139380956, 0.683831809069;
	(2, 2, 0) 0.317744655636, 0.184830666849, 0.497424677515;
	(2, 2, 1) 0.0558444390877, 0.123408749153, 0.820746811759;
}
